# layer1.weight shape=torch.Size([64, 40])
0.03152606
-0.13776183
-1.25797033
-0.01579211
0.14540502
-0.16319473
-1.07510066
-0.00838245
-0.04944746
-0.15539740
-0.84728587
0.00383560
0.05317539
-0.23506208
-1.00528407
-0.01194416
0.09746547
-0.32693255
-0.97803837
0.02247724
0.06286371
-0.32018372
-1.59672499
0.03923655
0.00295221
-0.40479651
-2.19690275
0.01360389
-0.06569012
-0.39886200
-3.26653004
0.00598991
-0.12225878
-0.09124163
-5.18712854
0.01619202
-0.04239869
0.03844762
-9.74341106
0.01481555
-0.99935704
-0.28141716
0.07059974
-0.03164830
-0.56589276
-0.56822681
0.01797379
0.01714540
-0.40480754
-0.23557547
-0.07526838
0.01415742
-0.43303955
-0.14247482
0.11148692
0.17367515
-0.44351244
-0.01838301
0.10975818
0.06036673
-0.63069874
-0.08386026
0.03056694
-0.07684612
-0.91810709
0.13289337
0.05450586
-0.05511874
-1.22860479
-0.38104787
0.02256587
0.01625440
-0.93964434
-0.17977037
-0.00999700
0.12940720
-0.49088687
-0.34242785
-0.06416406
0.10609396
-0.10258052
-1.22571373
0.00779418
-0.06772939
-0.04863207
-1.05675089
0.07546189
-0.03118419
0.02089165
-1.03656054
0.01547873
-0.05254372
-0.01584792
-0.88652068
0.06068040
-0.00036383
-0.02326263
-0.88861179
0.05704913
0.01973254
-0.01283565
-0.80551249
0.00560331
0.00693366
0.01128983
-0.67439693
-0.08960065
-0.01145424
0.04514659
-0.56057274
-0.06125512
-0.03641418
0.05092164
-0.33653578
-0.12570469
-0.01633048
-0.02698425
-0.14740787
0.10345639
0.06600036
-0.59076679
-0.25388771
0.02546144
-0.02468540
-0.36041269
-0.39486986
0.10188277
0.10068537
-0.33512998
-0.12887129
-0.06079643
0.09539092
-0.11308346
-0.21598782
0.00765772
0.08253075
0.05217315
-0.07664711
0.06967014
0.07701285
-0.02644049
0.01246085
-0.08006255
-0.00487049
-0.07835434
0.08814681
-0.06577411
-0.09255674
-0.61915040
0.20932743
-0.07425652
-0.09084873
-1.55525517
0.34774566
0.14791782
0.11068998
-2.16999650
0.06391975
0.01264808
0.00754731
-0.21947220
-0.10099128
-0.81150651
-0.18656835
-0.13161212
0.04827819
-0.73482072
-0.17258427
-0.05940129
0.04994578
-0.62387192
-0.06040933
-0.11753852
-0.09867974
-0.58250654
0.39668056
-0.00108750
0.16889897
-0.66309959
0.27990019
0.00136202
0.20216067
-0.92185700
0.19138645
0.18713526
0.35249630
-1.09722030
-0.11490867
0.02890270
0.11072573
-1.21413910
0.09544808
0.16733135
0.09917153
-1.48508513
0.26889989
0.52561283
-0.55461872
-2.38689995
0.54215354
-0.54351044
0.06239541
-0.15414189
0.10733483
-0.34588230
0.06704720
-0.13324460
0.18294296
-0.30942318
-0.03391314
-0.06383881
0.19155784
-0.13662951
-0.13750933
0.03814611
0.19680199
0.00638750
-0.04792181
0.06430649
0.12883769
-0.12268199
0.00858366
0.04487619
0.21509831
0.23393902
-0.02267868
0.10402457
0.22322282
0.57704771
-0.06672597
-0.02344760
0.12797351
1.04885435
-0.30797759
-0.19788873
-0.01061187
1.22738028
-0.50131810
-0.26705670
-0.16111039
2.20428824
0.15221682
-0.20592561
-0.03182094
0.57862043
0.10088615
-0.03541993
0.06111554
-0.03145067
-0.31303450
-0.15681988
-0.07800260
-0.02701900
-0.13960442
-0.10116021
-0.04658238
0.25098693
0.20008843
-0.07719188
0.23805980
0.01995871
-0.00433544
-0.07647211
0.23992389
0.06166944
-0.30993339
-0.15904661
0.03637496
-0.20976664
-0.31434366
0.13985476
-0.09921479
-0.06209802
-0.29371482
-0.02224761
0.14690201
-0.20143466
0.17553821
0.16855602
0.08151851
0.54639888
-0.59262186
-0.35797900
0.00021971
0.05762187
-0.51895136
-0.30976722
-0.00889861
0.04231716
-0.53674102
-0.28131133
-0.01891015
-0.02933983
-0.52069163
-0.33182630
-0.02360401
-0.11037444
-0.53668708
-0.24881363
-0.00397403
0.00075287
-0.47708291
-0.33574951
0.02522244
0.01313030
-0.34961057
-0.38249061
0.00797792
-0.08069523
-0.44357002
-0.65059018
0.01032212
0.12912118
-0.53269184
-0.92046374
-0.01869014
0.07385183
-0.49782148
-1.16847420
-0.04510442
-0.10079212
0.22741465
-0.25231841
0.10327094
-0.11738963
0.17119692
-0.09516962
-0.05269496
-0.10502332
0.29662406
-0.33466986
0.10572663
-0.22681522
0.29464117
-0.28127038
0.16045615
-0.40593603
0.19158034
-0.45011240
0.31532547
-0.21730928
0.36088645
-0.25495893
0.11005267
-0.04786476
0.34482020
-0.33484146
0.12496981
0.03110076
0.39970109
-0.61314207
0.07042877
-0.29483452
0.71143121
-0.84322494
0.05072827
-0.37319905
-0.27644101
-1.20475018
0.10037731
0.17071071
-0.26345581
0.32505369
0.13097578
0.32030481
-0.32594597
0.30493400
-0.12731756
0.29080904
-0.26895991
0.31547162
0.08672274
0.16832480
0.02594335
0.18998694
-0.06237052
0.37475944
0.04782829
0.28045306
-0.02625434
0.35062581
-0.03532589
0.34546724
-0.21837103
0.45909324
0.50073338
0.11475021
0.21076001
0.38687843
0.37645510
0.15386097
-0.05315167
0.33817634
0.23944168
0.38248229
-0.09408619
0.33836243
0.72869593
0.54309976
0.07862764
0.01333958
-0.10579458
-0.01114731
-0.42960808
-0.21786381
0.02208312
0.12129595
-0.38558826
-0.12723398
0.08184280
0.04864869
-0.60765588
0.09978581
0.03328085
-0.07210736
-0.53590393
-0.10914680
-0.13660868
0.03692145
-0.57336736
0.13633405
0.10858906
-0.01531076
-0.54577529
0.06416564
0.11028025
0.00079865
-0.38711494
0.26687807
-0.01488443
-0.06344442
-0.53132516
0.45063218
0.00935581
-0.18507293
-0.40583798
0.62468487
0.18161346
-0.08129556
-0.44795308
-0.04604788
0.11731363
-0.22086304
0.29241142
-0.00408006
0.19672191
-0.26524138
0.49893954
0.24505739
0.12490305
-0.15979256
0.48855743
0.02112805
0.10270344
-0.07714267
0.25726512
0.01501696
-0.00487682
0.02630781
0.68787950
-0.07454243
0.15893281
-0.06163567
0.13800913
0.01000297
0.04986452
-0.01599172
0.79456455
-0.25969234
0.09418155
0.01120329
0.36188197
-0.47714642
0.08177584
-0.16561590
0.64884180
-0.81082457
0.66951573
0.00428519
0.36795509
-0.08826693
-0.12290316
-1.51922011
0.00930545
-0.02993255
-0.05824257
-1.67660666
0.00874130
0.09694111
-0.19325824
-1.46300685
0.01968926
-0.08837458
-0.25445578
-1.69146729
-0.00563494
-0.12513207
0.31187102
-1.58697879
-0.07822356
-0.04303691
0.09326367
-1.73236585
-0.00780679
-0.04904124
0.15881558
-2.10540056
-0.00637840
0.12383872
0.51161724
-2.83168817
-0.06538021
0.04497440
0.57704180
-4.12925625
-0.02976475
-0.00341002
0.11058433
-7.45139980
-0.00671038
1.02461052
-0.05919731
-0.20399509
-0.11224288
0.70221144
0.05503045
-0.13562042
0.09886783
0.38456422
-0.03157018
-0.18608904
0.03510355
0.14923041
0.12158009
-0.04466168
-0.00452314
-0.04181056
-0.03944074
-0.00689913
0.01311875
-0.01637738
0.10249455
-0.07149839
-0.01200976
-0.09327538
0.26331875
-0.18020047
0.07843226
-0.24592921
0.27789208
-0.00243786
0.01122744
-0.30240136
0.26337552
-0.14842968
-0.00452088
-0.63477540
0.27762473
-0.17305799
-0.08885344
0.11312293
0.04351024
-0.04651292
0.19920932
0.30942813
0.04902193
-0.04219656
0.22232391
0.42581064
-0.04683427
-0.20474888
0.03972364
0.23009855
-0.03348305
-0.08080712
0.07002274
0.02369788
-0.07426600
-0.04115476
0.13232031
0.13374425
-0.24345864
-0.16175604
0.01977935
0.27441069
-0.25901076
-0.01515180
-0.15007292
0.73276168
-0.52253479
-0.00131788
-0.16770349
1.93716097
-0.31968373
0.02698741
-0.07634664
0.70634335
-0.52308595
-0.02615994
-0.01861843
-0.78215355
-1.13417602
-0.12201027
-0.48163354
-0.04570785
-0.63940227
-0.19723240
-0.19933079
-0.21272720
-0.31917131
-0.16429082
-0.18369102
0.06035105
-0.70373476
-0.27705556
-0.36142111
-0.05200227
-0.35762063
-0.16664870
-0.17685401
0.07249058
0.27274564
-0.37373927
0.03643719
-0.12194336
0.16775791
-0.33948925
-0.04322416
-0.02879306
0.22356722
-0.42533916
0.22173214
-0.05514507
0.09491130
-0.23129657
0.03729898
0.21728021
0.02948597
-0.44239280
0.14454578
-0.26782453
0.04033421
-0.03674295
-0.09042283
-0.30566612
-0.20360102
0.08123585
-0.35137051
-0.32116383
-0.23275347
0.24024525
-0.28270367
-0.22177845
-0.12913996
0.02185263
-0.50699008
-0.07007470
-0.38604194
0.14568254
-0.12078749
0.18507019
-0.16658545
-0.09308751
0.02641636
0.19533549
0.00364226
-0.11399105
0.43709916
0.29046747
0.22250749
-0.12143257
0.35929179
0.43401402
0.46228620
-0.24293627
0.52016860
0.47402355
-0.18401225
-0.55860102
0.31583560
-0.11709039
-0.02445996
-0.82928872
0.05704162
-0.15036634
0.34206745
-0.91546428
-0.11021561
0.13455765
0.58694088
-1.02580500
-0.38276920
-0.05059301
0.37880588
-0.84915507
-0.21629381
-0.01472400
0.59565991
-1.03068900
-0.11882155
0.05681163
-0.48991594
-0.99270219
0.27007604
-0.05026723
-0.04088012
-1.19433796
0.22316346
0.17658617
-0.44201398
-1.71067345
0.12603197
-0.13499454
0.19502003
-2.44731522
-0.00576119
0.27237719
-0.01734664
-3.95232892
-0.00383122
-1.31719947
-0.14368948
0.15008359
-0.11363461
-0.48606691
0.15646614
-0.01382252
-0.09357610
-0.31498268
-0.30462435
-0.05401650
0.29008499
-0.11290372
-0.31847399
0.00238525
-0.18227446
0.06150188
-0.33493426
-0.09157231
0.33135846
0.16649961
-0.02914798
-0.18969211
0.16089740
0.14520957
0.01418863
-0.23070329
0.23604794
-0.27604571
0.00631334
-0.26019984
0.15467533
-0.41995963
0.31980458
-0.12545297
0.10624073
-1.26710963
-0.00136050
-0.18760902
-0.21341881
-0.91490442
-0.63267326
-0.25657776
-0.39271054
-0.14522645
-0.39398554
-0.07395528
-0.32801238
-0.18311225
-0.16931278
-0.29489684
-0.19019821
-0.01302507
-0.00309423
-0.30451885
-0.26894912
0.02833028
-0.10165708
-0.25842720
-0.22783105
-0.12841941
-0.06923164
-0.33028316
-0.15097134
0.14559992
-0.24748524
-0.53135937
0.05547734
-0.03351543
-0.05773728
-0.80818993
-0.02458803
0.03635743
-0.06516792
-0.89782190
0.11587030
-0.01454715
0.05185466
-1.39575016
0.18772469
-0.09857827
-0.09142077
-0.03483608
-0.55029500
0.20523126
-0.22728606
-0.05814997
-0.41934666
0.34866685
0.18611525
-0.07038615
-0.35524711
0.55546761
-0.05913556
-0.18158554
-0.39501837
0.52887911
0.11882143
0.08254404
-0.63544548
0.57944554
-0.04836756
-0.04778473
-0.54981744
0.68124300
-0.24351825
-0.12916926
-0.48883918
0.86910963
-0.17544186
0.04339520
-0.28787217
0.49106237
0.07128520
0.01226534
-0.18285972
-0.50552058
-0.17339258
-0.13505821
0.06602550
-1.61922431
-0.22218472
0.11986066
-0.21787712
-0.88394696
-0.32086429
0.06643234
0.01680810
-0.37579599
-0.27262282
0.14439029
-0.09296049
-0.46743703
-0.33635521
0.16399762
-0.01669034
-0.20446141
-0.29466140
-0.11483868
0.02898378
-0.10218573
-0.20240726
0.15133819
0.01964463
-0.32357356
-0.26306805
0.12088072
0.04361105
-0.39866969
-0.20753102
0.09021252
0.04517123
-0.48275635
-0.13868791
0.06714012
0.04804284
-0.59482592
-0.06759077
0.21733703
0.01868184
1.58646393
-0.02602141
0.07920265
-0.06368382
0.94704252
-0.10367896
-0.04916379
-0.40263900
0.67436641
-0.13601272
0.08651932
-0.13740321
0.45717326
0.02294668
-0.07425378
-0.10336078
0.27328047
-0.20316039
-0.15521935
-0.13755564
0.47071955
-0.13931163
-0.06720894
-0.01490313
0.53721857
-0.43034467
-0.05925656
-0.01492332
0.44628960
-0.39753214
0.01949976
-0.10372469
0.15569672
0.09317508
-0.03888957
0.01815779
-0.19983257
-0.31173676
-0.17992207
-0.00009445
-0.68417394
0.19624892
0.06423746
0.12030461
-0.70436496
0.05898925
0.07637730
0.33084470
-0.37975219
0.08938017
-0.09266289
0.30821702
-0.22239202
0.15630773
0.13678637
0.27779835
-0.22823352
0.20358820
-0.10102690
0.15698954
-0.18099003
0.14654113
-0.02306115
0.09891517
-0.33520725
0.12149298
-0.14151405
-0.08621336
-0.31994012
0.01413772
-0.32989264
-0.00793720
-0.32825711
-0.12356675
-0.46525818
-0.09653410
0.33781517
0.40931684
-1.07920849
-0.27258533
0.03362830
-0.23885225
-0.15631148
0.05056033
-0.03535462
-0.28348091
-0.28443530
0.44757524
-0.10200122
0.13339439
-0.05544340
0.54605579
-0.04652826
-0.02262750
-0.19399363
0.46947896
-0.03955906
-0.05156000
-0.23295197
0.10314483
0.18243785
-0.12785025
-0.10985491
-0.04866014
0.51828933
-0.09887254
-0.05621972
0.07258371
0.98063904
0.03362740
-0.10319846
0.22294302
1.01421702
0.24623424
0.00448690
0.44107208
0.77773094
0.24618718
-0.14216131
0.01911145
-0.16942188
0.12335575
0.01385910
-0.83426964
-0.06903581
0.07991674
-0.08229557
-0.72464859
-0.04130838
0.09740383
0.01397133
-0.76774120
0.07887271
0.09911497
-0.06166671
-0.75729614
-0.10228908
0.11793812
0.06054365
-0.61839706
0.04998178
0.14300884
-0.02418162
-0.80446327
-0.01713363
0.11141887
-0.02195203
-0.66154385
0.02224180
0.11500804
0.04089163
-0.62940615
0.14608356
0.14806230
0.02312738
-0.57932210
0.15811265
0.04987425
-0.07358546
-0.62115842
1.07074809
0.19785711
0.20877971
0.27748573
0.76341420
0.04406716
-0.04208220
0.13401058
0.59266418
0.05879042
-0.03355509
0.03541084
0.43393528
0.04716508
0.06998561
0.05595341
0.77270222
0.07379317
0.07599616
0.02433029
0.97398025
0.04422975
-0.00645823
-0.01112593
1.01827407
-0.00875512
0.02316279
0.05320764
1.09075212
0.03132268
0.07573971
0.06344827
1.02587986
0.09343845
-0.09197055
0.03697647
0.83920676
-0.05682449
-0.07596402
0.09088095
-0.08798483
-0.19615395
-0.58696812
0.00365578
-0.08990047
-0.50052720
-0.52294570
0.03191045
-0.16216621
-0.25727922
-0.58478117
0.02072180
0.05652912
-0.22565992
-0.57356590
-0.00735153
0.01720529
-0.09717096
-0.70770931
0.00105410
0.10817198
0.12653579
-1.00533485
0.12496302
0.03218590
-0.27251849
-1.37758923
0.16844800
0.20036571
-0.27055842
-1.57175124
0.07353257
-0.00895875
-0.36594409
-2.02929783
0.02826346
0.11897805
0.17711607
-3.04666424
-0.01842862
-0.05868073
0.16104716
0.10539533
-0.15522324
0.02745868
0.06831671
-0.07030422
-0.15805672
-0.04818442
0.14647223
0.02171259
-0.49002108
-0.03873723
0.01335377
0.02590507
0.49428555
-0.07233880
-0.17741895
0.07975214
-0.96102566
-0.17575161
0.06022973
0.13651665
0.43671718
-0.12277831
-0.15574281
0.16486774
-0.73922390
-0.29385903
0.06701832
0.41903830
-0.29840279
-0.21641070
-0.05187564
0.54696965
-0.54512614
-0.07660431
0.20783301
1.12409365
-0.28634155
0.05441713
-0.17448270
-0.61400872
-0.85415530
0.22375487
-0.22528398
-0.34484661
-0.78719205
0.06262789
-0.14482033
-0.05816070
-0.51574010
-0.04412888
-0.15891182
-0.12714291
-0.51667809
-0.01580725
-0.07526271
-0.03227932
-0.41528800
-0.21637587
-0.03531162
0.03701799
-0.31318972
-0.20321926
0.13101840
0.06394609
-0.41600829
-0.22527580
0.36278138
-0.02288899
-0.32944968
-0.31280267
0.59053475
0.10264151
-0.37591335
-0.43801174
0.43770424
-0.01441197
-0.28350109
-0.04802380
0.03733287
-0.26682201
0.44966045
0.06128737
-0.05497156
-0.08711967
0.46974999
-0.10807258
0.00364267
-0.21766947
0.31838647
-0.04327355
0.43949726
-0.48211029
-0.00460041
-0.02031375
-0.31677830
-0.52633530
-0.33411643
0.03250693
-0.18465279
-0.76699346
-0.25534433
0.17357506
-0.51362675
-1.14578223
-0.07147022
0.16738941
0.17126632
-1.51092005
0.10079954
-0.10359212
-0.53397495
-1.81411517
0.15105738
-0.42482802
-0.32491580
-2.23681426
0.16212787
-0.99337822
0.17296749
0.20795648
0.27559438
-0.60162944
0.00001176
0.14392722
0.08376306
-0.54991519
-0.18757504
0.02470118
0.05718292
-0.54056561
-0.15485889
0.21328680
-0.00366119
-0.54337323
-0.26149404
-0.04277758
0.20733304
-0.44212416
-0.70458341
0.12701929
-0.15796350
-0.18088621
-0.56847823
0.11024256
0.05998138
-0.13221137
-0.26674435
0.02454054
0.25141770
-0.28910083
-0.33638290
0.12918158
0.10998870
-0.60469902
-0.28009465
-0.01304369
0.15802775
-0.51985168
-0.35653201
-0.12378431
0.17376809
-0.29825294
0.10763992
-0.04693902
-0.55117261
0.01854254
-0.08732629
-0.05337645
0.66932148
-0.16061319
0.12143099
-0.10125113
-0.84456271
-0.04964252
0.00635058
-0.00765919
0.77056003
0.04918813
0.00696449
-0.12176976
-0.43356669
-0.20729299
0.13771892
0.09906276
0.19506854
-0.05650654
0.19522056
0.07275179
-0.13499852
-0.00345806
0.07632787
0.35715348
-0.03555981
-0.32449713
0.12930644
0.59722042
0.17491785
-1.29823446
0.01530106
-0.05258345
-0.35209653
-1.35542500
0.11176710
-0.23193836
-0.19496281
-1.58073401
0.10094648
-0.16118445
-0.08102421
-1.01039934
0.17662391
0.09924413
0.03513712
-0.45716834
0.20819563
-0.06983285
0.10535218
-0.14844640
0.33117625
-0.06629504
-0.00328367
-0.06582414
0.29744565
0.04825634
-0.00054138
-0.14222857
0.28299060
-0.07955784
-0.12247124
0.08476531
0.33834654
0.14239182
-0.09384316
0.37329331
-0.10664730
0.15719014
-0.06556562
0.10637195
-0.08971362
-0.10177809
0.34054184
-0.51754850
-0.04851884
0.14868961
0.25480071
-0.67797160
-0.54962993
0.07305048
0.02629155
-0.79841775
-0.55086738
0.01115009
-0.10987532
-0.93573427
-0.41422829
0.03208489
-0.27409366
-0.67675966
-0.43447411
-0.10617941
-0.10430144
-0.30294245
-0.31939629
-0.02107478
-0.15812646
-0.09587535
-0.47307509
-0.25634837
0.23664588
-0.07144579
0.83363944
-0.30978498
0.17032844
-0.43055791
-0.19176915
-0.02849780
0.19555129
1.15937150
-0.41437572
-0.05022802
0.15670615
0.49339992
-0.39795452
-0.02815029
0.03353862
0.11546718
-0.38602296
-0.07101813
-0.00949499
-0.03800153
-0.59619254
0.05248111
-0.12984215
0.07575329
-0.47989684
-0.00902534
0.12848628
0.33830625
-0.52394092
0.01785757
-0.21179576
0.55023682
0.03621581
0.19446941
0.01873332
0.49636069
0.05343909
0.08551238
0.27532613
0.31528625
-0.29193071
0.13999616
-0.08488760
0.19297002
-0.05922005
0.34613386
-0.09649748
-2.16757631
0.12231631
0.03369531
0.21772122
-0.84697896
0.11879988
0.04086332
0.00911365
-0.32586458
-0.05962273
0.15213567
0.07500342
-0.00845179
-0.02296620
-0.06662644
-0.06730065
0.04581058
-0.28654823
0.00519071
0.01928262
0.07143532
-0.10895509
-0.04956701
0.07102679
0.14074703
-0.26517904
0.10368798
-0.00363647
0.33501965
0.05033601
0.02797442
0.05559873
0.18078394
-0.15946455
-0.08901232
0.08730579
0.49290234
0.39145914
-0.16518271
-0.20040727
0.12373746
-0.04236610
-0.21594898
1.07233560
0.12423033
-0.10198838
-0.01562566
0.99642062
0.02168379
-0.14635006
-0.08568008
0.95557636
-0.01349836
-0.16537593
-0.00181285
0.78012407
0.04177025
-0.20824260
-0.05641309
0.77830344
-0.04352302
-0.15290619
0.10204604
0.66716868
-0.09061622
-0.14805661
-0.05812396
0.73096430
-0.01882415
-0.11419034
0.01706047
0.63898641
-0.13453478
-0.12813966
0.07379015
0.65751159
0.05826904
-0.14053701
0.14251357
0.51098478
0.46037176
-0.19218352
-0.16574129
-0.16988625
0.32026201
-0.23190175
-0.16772044
-0.30398309
0.05171378
-0.24572664
-0.03269512
-0.31332856
0.12391094
-0.18800049
0.05646742
-0.26414102
-0.15220946
-0.13387352
0.08459439
-0.22064608
-0.08875548
-0.14032917
0.03867914
0.03963389
-0.37817204
-0.07678477
-0.23709825
0.00208204
-0.48644730
-0.02576025
-0.34934571
0.25666490
-0.53429866
0.04840650
-0.35030746
0.41330680
-0.71030962
0.36009192
-0.95921391
0.22613502
0.58957672
-0.37477228
-0.27769658
-0.04383508
0.16215517
-0.44986635
-0.06826543
-0.02267978
0.29812932
-0.47944608
-0.05944498
-0.04599868
0.05520171
-0.47304621
-0.07102644
-0.07249779
0.02126601
-0.36546150
0.08755925
-0.11731050
0.09320036
-0.47835994
-0.07884434
-0.07621310
-0.17508744
-0.46993822
0.12057689
-0.07395708
-0.07331695
-0.55752897
0.01824765
-0.08554164
-0.38758710
-0.31978369
0.21365158
-0.02665460
-0.70136935
0.15465334
-0.14008415
-0.16725937
-1.34361112
-0.18331470
0.16343421
0.15577464
-0.80333483
-0.06714045
0.03307988
0.00845002
-0.51961339
0.06588500
0.12787522
0.01055646
-0.37007132
-0.02079213
-0.08606896
0.19652337
-0.65203691
0.26182127
-0.03670251
0.11287867
-1.02861094
-0.14708766
0.17497756
0.13365954
-0.88784844
-0.13755672
0.14387503
-0.06821801
-0.77213836
-0.01913830
0.03472329
0.07902109
-0.88585913
0.08937230
-0.08745738
-0.35289729
-0.35949236
-0.00527011
-0.29631358
0.13292508
-0.02427040
1.39381480
-0.00209726
-0.05423546
0.06685560
1.26195896
0.12319509
-0.03127657
0.00440712
0.84653586
0.13534857
-0.07731424
0.02250678
0.93061596
0.12128844
-0.06645022
-0.00185222
0.85577053
-0.05232473
-0.06796528
0.05603423
0.46653974
-0.09066487
-0.03231134
-0.00503559
0.40932596
0.01454602
-0.00276198
-0.05690365
0.04993199
-0.13211372
-0.19546722
-0.08021725
0.15195595
-0.03588683
0.05608075
-0.10272017
0.14511810
-0.09474488
-0.19080760
0.41751835
-0.11541155
-0.40091690
0.37266764
-0.16987230
-0.09578685
-0.23104684
0.22224651
-0.24011181
-0.14581814
-0.44427794
0.15281849
-0.11068507
-0.17873895
-0.28051272
-0.01711262
0.07754400
-0.27313906
-0.16978198
-0.03910727
-0.05980583
-0.20792642
-0.20170863
0.00075611
-0.29172331
-0.13701414
-0.26982743
-0.02102158
-0.31268904
-0.16605243
-0.29748881
-0.25571048
-0.39066362
-0.06034777
-0.21638137
-0.05442951
-1.11584806
0.39432469
-0.15471454
0.18477875
1.01547313
0.74891609
0.28223783
0.08966201
0.61709666
0.85044098
0.08275332
-0.02311673
0.63523036
0.76478702
0.24059233
0.28093350
0.36820361
0.37756944
0.19728832
0.06994986
0.04976401
0.11321478
0.02186970
-0.00524251
0.00689647
0.69743907
0.14649549
0.12546037
-0.08722223
-0.02388283
-0.15615216
0.04843331
-0.05766636
0.28387269
-0.05517906
0.38113198
-0.02780492
0.43876007
-0.03576000
0.04695192
-0.00457824
0.22955571
0.06670090
0.02456008
0.09631464
0.00761941
-0.70222431
-0.45941213
0.12850493
-0.04329195
-0.71276265
-0.40716138
-0.00943402
-0.45994702
-0.80968672
-0.12452085
0.15240581
-0.21777233
-1.15646303
0.21369404
-0.03753294
-0.41476896
-0.92649412
0.34352204
-0.04518397
0.14434971
-1.13262022
0.39199680
0.12117247
-0.47574878
-1.07001495
0.36066115
-0.10655890
-0.42973050
-1.04251575
0.28857672
-0.08067556
0.41213554
-1.27984369
-0.15096171
-0.52614528
-0.36597827
-1.50893581
-0.41980168
0.68525058
0.08485647
-0.55478168
0.38804060
0.23207711
-0.22959574
-0.24266724
-0.64419025
0.39845103
0.34292775
-0.40982282
0.25777978
0.20002957
0.04206086
-0.45244437
-0.15588306
0.03704414
-0.13284944
-0.25708836
-0.03695043
0.04825167
-0.13730808
-0.35195300
-0.05778098
-0.17806594
-0.05149482
-0.52169532
-0.44124407
-0.14208980
0.07216544
-0.47565314
0.01674446
-0.35558712
-0.07775688
-0.57034111
-0.60554790
-0.36992851
0.09956428
-0.70042324
-0.09956431
-0.53781265
-0.32666838
0.14885099
0.24673492
-0.06124674
-0.28770265
0.03643384
0.24265561
-0.08676604
-0.33279422
-0.03218230
0.11509303
-0.07904585
-0.10612813
0.15792184
0.06811927
-0.12449899
-0.17348200
0.01289079
0.11221416
0.18933776
-0.17420396
-0.00834764
-0.03653166
0.23684509
-0.21987739
0.13286409
-0.31558195
0.21297099
-0.30923033
-0.24642536
-0.33528823
0.41390941
-0.35885611
-0.53465468
-0.47467312
0.60307020
-0.48553810
-1.12891567
-0.16869155
0.18891901
0.16790535
-0.04697409
-0.06139654
0.04326432
0.18498971
0.12549567
-0.04848359
-0.01990741
0.18238522
0.19086795
-0.01971680
0.06476014
0.33973324
-0.09987423
-0.02208198
0.07983088
0.32135323
0.14351864
-0.02854654
-0.11039596
0.41585225
0.01984396
0.02059328
-0.13448352
0.42593279
-0.10693587
0.03267168
-0.38405204
0.55831128
-0.51560295
0.04589488
-1.18461645
-0.25999168
-0.83828366
-0.27675840
-0.52992266
-0.05913147
-0.75714409
-0.23581296
-0.27079716
-0.42301708
-0.05242497
-0.53362018
0.07282528
0.24869844
0.04936185
0.46815228
-0.07613088
-0.53526020
-0.19774145
-0.95787209
0.09619937
0.39237544
-0.26824534
0.69522119
-0.13746881
-0.17215413
-0.14627412
-0.56646973
-0.03278156
-0.46323097
-0.24509624
-0.28739464
0.09164325
0.02056052
-0.36693478
0.06246025
0.09608837
-0.07569662
-0.26498786
-0.29032752
0.13627772
0.16085556
-0.39711228
0.21796283
0.03472047
0.02908192
-0.38305449
-0.19091231
-0.60343742
0.20931882
-0.30999714
-0.10528818
-0.04021253
0.53914183
-0.30140752
-0.10617770
0.07145790
0.49421063
-0.07420267
-0.10896313
0.08752245
0.57056487
-0.21124265
0.00157378
0.07015463
0.44231030
-0.15606135
-0.09060337
0.08637345
0.57829916
-0.31010082
-0.07717403
0.03610495
0.71032780
-0.39155120
-0.11005648
-0.01381400
0.64953184
-0.70471245
-0.02911070
-0.03209630
0.63420761
-1.08102751
-0.04372887
0.27148271
0.36917415
-2.12332225
0.02511928
0.20247769
-0.39385033
-0.31845939
0.49640858
0.10751905
0.01879064
-0.19154097
0.56045473
0.02592527
0.02125101
-0.21361139
0.74796838
0.09288456
0.02529806
-0.25096342
0.68602353
0.12259842
0.02592702
-0.10560186
0.49014676
0.06261816
-0.29687154
-0.33652031
0.41182414
-0.10882156
0.40742087
-0.30963391
-0.40950581
-0.22572228
0.16118655
-0.55893248
-0.61313349
-0.17207722
0.18921137
-0.48288310
-0.60440624
-0.14529249
0.38260463
-0.73040020
-0.32715178
-0.51963806
-0.89915413
-0.09617643
-0.12256531
-0.13173437
-0.00629254
-0.01879118
-0.43516454
-0.09496095
0.06587304
-0.13387573
-0.68096823
-0.10698651
0.15911031
-0.10446580
-0.58757144
-0.22559097
0.07094399
0.09691931
-0.16892378
-0.35119453
0.17349119
0.08012004
-0.43973073
-0.64913273
-0.03215831
0.04729943
0.19114500
-0.48077732
-0.15156856
0.18663222
0.05674752
-0.62840110
-0.06008385
0.10931818
0.15753315
-1.19090807
0.01924267
0.26204807
-0.17062032
-0.14431146
0.42290619
-0.63134116
0.25286549
-0.14203647
0.34574199
-0.25790220
0.18506774
-0.17026234
0.28874263
-0.09629863
-0.19718644
0.09602245
0.34522635
-0.21789008
0.62819242
-0.14739262
0.22247194
-0.16908880
-0.32923880
-0.20033365
0.07639045
-0.13035020
0.84277612
-0.03151326
-0.13196470
0.05470403
-0.50737435
-0.06225562
-0.07566179
-0.11429511
0.60063446
-0.19402520
0.04049730
-0.09461807
-0.15320921
-0.25063512
0.06602176
-0.00444533
0.47878769
0.68146211
0.25923237
-0.10705426
-0.02367513
0.30354458
0.09959567
0.08142424
0.08657262
0.69275457
0.08677243
0.06410488
0.07434519
0.68523312
0.15801781
0.08202308
-0.01393066
0.52731514
0.08205591
0.03733039
-0.01541161
1.05038941
-0.22939888
0.11312572
0.02579846
1.54204440
0.17712843
0.09901523
0.17575827
1.20929241
0.27362588
-0.01506254
0.24161014
0.85023034
-0.14340916
-0.12362669
0.33181092
0.80412734
-0.10899268
-0.10767251
-0.02680095
0.25454929
0.09942137
-0.01436089
0.20529118
0.18127929
0.25103560
0.17261814
0.00090623
0.24547677
0.26455292
-0.01432688
0.18501779
0.03636665
0.18185544
0.01077623
0.10591013
-0.01159964
0.16195764
0.01335685
0.03275356
-0.47990102
0.07499259
0.04243157
0.56065875
-0.88188761
0.32347313
-0.18622145
-0.11743049
-1.76280713
0.15531926
0.00821568
-0.10258654
-1.52738881
0.12014113
-0.20444997
-0.40330464
-0.33279988
-0.03565458
-0.07567684
-0.09565524
0.00879563
0.20971389
-1.19457531
-0.02499229
-0.06592137
0.20380299
-1.11212873
-0.00008851
0.05910423
0.26127881
-1.44212437
-0.00417583
-0.04531091
0.28741950
-1.49013853
0.00254065
0.02196818
0.12269747
-1.62656927
-0.00864248
-0.05683639
0.35357302
-1.79025292
-0.00112574
-0.00968232
0.34893608
-2.42547369
-0.01198644
-0.09762287
0.28724977
-3.54622698
-0.01247443
0.05720444
-0.05435376
-5.87542391
0.01740218
0.03693331
0.01827918
-10.45751572
0.02393050
0.52149963
0.59935170
-0.29293886
0.30546623
0.41931257
0.23135938
-0.50219887
0.13492733
0.23855531
0.19769509
-0.46255660
0.03430656
0.10659974
-0.09037527
-0.57874066
0.04024037
0.07136210
0.11744658
-0.65204185
0.00369006
0.13132478
0.06991974
-0.63574046
0.04762310
0.06001573
-0.27158257
-0.58780760
-0.01202972
0.09092662
-0.26792461
-0.54270667
0.05233974
-0.19552860
-0.01978646
-0.74442804
0.05504410
0.00774397
-0.27929854
-0.84348464
-0.09843849
-0.16981681
0.40028581
0.02732848
0.11734632
-0.41938812
0.35268179
0.17648222
0.17842011
-0.33757114
0.30607238
0.01053283
0.22489022
-0.41418919
0.28954330
0.14477515
0.51645428
-0.61675572
0.42090389
-0.11140434
0.04070908
-1.51061165
-0.13170366
-0.16637385
-0.33892640
-0.83446270
-0.21901573
-0.05449667
-0.33869705
-0.59989154
-0.01811296
0.08845917
-0.31773904
-0.21028243
0.01829308
-0.13235813
-0.13628039
0.51891363
-0.19332799
0.02028575
0.04075849
-0.58340275
-0.31013492
-0.10102013
0.04472963
-0.76455569
-0.30293682
-0.07391653
0.26308590
-0.83720815
-0.39225623
0.03588977
0.20649730
-0.71997005
-0.34024212
-0.08328996
0.41493237
-0.73002315
-0.10607990
-0.04072778
0.22217938
-0.46745321
-0.07196471
-0.12057349
0.31759670
-0.43577042
-0.04543006
-0.22728807
0.21237250
-0.59279746
-0.03709892
-0.00452740
0.12842843
-0.55433190
0.37142700
0.11537641
0.17005579
-0.52228081
0.18446195
0.23863673
0.34863022
-0.96945316
-0.25615445
0.22638032
0.04106566
-0.70550752
-0.26618150
0.04376676
0.07104603
-0.85107017
-0.17717625
0.22635359
0.11865509
-0.49615541
-0.22793162
-0.07624941
0.15608358
-0.76651317
-0.19294620
0.07224309
-0.08901607
-0.63509089
-0.22476420
0.12599535
-0.05634832
-0.85958070
-0.08599532
-0.18547200
-0.09297135
-0.81973135
0.05319647
0.04888392
-0.10078555
-0.98412281
-0.14729220
-0.23853271
0.05777005
-0.83554953
0.12097162
-0.08504038
0.09537670
-0.14958468
0.50801569
-0.14931746
0.15241574
-0.12717861
0.37898126
-0.17104390
0.17265131
0.01526954
0.27755031
-0.27462167
-0.03658448
-0.12383603
-0.34451124
-0.26613581
-0.06055239
0.09872698
0.66436094
-0.18269658
0.28350389
0.13714981
0.52651227
-0.45055637
0.23206702
-0.12001054
0.45544869
-0.54326952
0.14271410
-0.34498882
-0.53246671
-0.84327251
-0.11435793
-0.04632773
-0.51876384
-1.13784540
-0.09332517
0.08746359
-0.41293845
-1.48631334
-0.00187079
0.02215295
0.32859936
-0.04138109
0.85671771
0.17192450
0.34479296
0.14482923
0.83587700
0.24830692
0.21796742
0.08066022
0.84772664
0.16185397
0.19930853
-0.08175412
0.72847474
0.03942537
0.15336289
0.04229836
0.71655577
0.17952982
0.07229622
-0.08095539
0.62912828
-0.00728456
0.02979574
-0.08771830
0.62713081
0.16394155
0.02890448
0.12752314
0.54464602
0.18908839
-0.05099545
-0.04030844
0.59020615
0.17078841
-0.09386106
0.08422764
0.46769124
0.34640631
0.10623366
-0.34809673
0.56490320
0.08894417
0.16647848
-0.39102051
0.44747883
-0.03433087
-0.06463271
-0.38609794
0.44937053
-0.07864916
-0.11280607
-0.44911706
0.30406666
-0.11250558
0.16304262
-0.29384381
-0.30022344
-0.08878893
-0.54070932
-0.40978113
-0.56900406
-0.12213712
-0.55815041
-0.35482848
-0.64177978
-0.03194928
-0.41475454
-0.71834135
-0.16857235
0.16357183
-0.16313864
-0.64637035
0.24010700
0.17004023
0.67253870
-0.63112628
0.49595308
0.02522172
0.34690627
0.12411296
0.01212130
-0.23298079
-0.07963690
-0.05904890
-0.20097762
0.15832996
0.76075375
0.11648462
0.06453107
-0.07253468
-0.04080408
-0.05206263
-0.06176530
0.02480793
0.58071846
-0.04741031
0.01108396
0.04607028
0.93797064
-0.05686850
0.01140069
0.05431329
0.93944263
-0.09128999
-0.04001562
0.04211021
1.22495246
-0.01415641
0.00601764
-0.09411877
1.15635955
0.01689115
-0.05988738
-0.11899531
-0.41792586
0.03001008
-0.15673265
# layer1.bias shape=torch.Size([64])
-0.07285412
-0.13866478
0.04511984
0.04678080
0.12005790
-0.09564870
0.00298607
0.02682462
0.03636846
0.08506104
0.14320941
-0.10380329
-0.00564860
0.10388182
0.11964662
0.00511322
-0.13397694
0.15251361
0.02016766
0.06008022
-0.00595382
-0.02212394
0.07842954
-0.15166838
-0.01206557
0.06238066
0.05531156
0.03353311
0.09660064
-0.08890172
0.02650585
-0.10515323
0.16087429
-0.13876246
0.06166669
-0.10142264
-0.09293611
0.08276612
-0.06875513
0.12999021
-0.14463814
0.13432902
0.14877878
0.14570056
-0.16336505
0.03131311
0.17145400
-0.15583211
-0.11979681
-0.13893031
-0.03045505
0.03492882
0.09120303
0.02852065
-0.03696828
0.02396381
-0.04565231
0.04938508
-0.08134203
-0.04945575
-0.07256296
0.00901938
-0.00061388
-0.15218632
# bn1.weight shape=torch.Size([64])
4.00782442
0.77836597
1.21470308
1.33027244
1.09974301
0.99871808
0.88150418
1.07970393
1.08926237
0.51860619
0.78062099
0.87647212
2.86792254
0.94788784
0.93665206
0.67549324
0.53293318
1.39115047
0.93456346
1.19134247
1.05380416
1.08738089
0.75904113
1.09748363
0.57307172
0.60095137
1.08398366
1.01446331
0.21747136
0.77778751
1.20453918
0.38413137
0.38793963
0.98921245
0.42968911
0.66875529
1.12849510
0.93618178
0.91771954
0.67189211
1.29622090
0.95195204
0.61172408
0.49906078
1.10373855
0.68930322
0.83131135
0.90891576
0.34401181
1.14365005
0.64648092
0.86684102
0.69110477
1.06644654
1.06212127
4.08150053
0.95673585
1.10347462
1.07980776
1.18628883
0.99930930
1.01092124
0.78474373
0.59553528
# bn1.bias shape=torch.Size([64])
-0.53146327
-0.00508122
-0.04980484
0.05931279
-0.08240551
-0.13108604
-0.00810495
-0.07962819
0.02822663
-0.04766114
0.04619263
-0.12156140
-0.07101042
-0.05197593
-0.28069752
-0.05111892
-0.00770024
-0.19162434
0.03193979
-0.02058223
-0.06071123
0.00757735
-0.01913237
0.01831617
0.03895119
-0.02638795
0.06801914
0.11637974
0.14973207
-0.11350179
-0.19183621
-0.37933809
-0.13475049
-0.06916174
-0.40542856
-0.14340842
-0.06475104
0.07584888
0.02133104
0.05356245
0.05955585
-0.35422108
-0.30116427
0.04433749
-0.18041563
-0.15917918
-0.17452258
-0.15419538
0.03078348
0.33621657
-0.13485274
0.02933180
-0.20889221
0.07909556
-0.12784392
-0.53435397
0.01182330
-0.07756028
-0.12988092
0.04358356
-0.14815636
0.08277217
-0.44291911
-0.19992965
# layer2.weight shape=torch.Size([32, 64])
-1.69660425
0.03295694
0.64472991
-0.03585039
0.05864352
-0.26042455
0.13000166
-0.82326382
-0.27444533
0.22273031
-0.33486375
-0.04988270
-0.82974744
-0.05021858
-0.17751865
0.34957778
0.15644529
-0.63039893
0.05218649
0.55357474
0.01108709
0.27429664
0.01462640
-0.14974618
-0.14275184
0.06081577
-0.32827127
-0.33253297
0.28098077
-0.20419359
-0.07956630
0.09712111
0.17392783
-0.38421297
-0.24360852
0.30129153
-0.10950905
-0.00423467
-0.04030870
-0.00144456
0.04200690
0.21168593
-0.24877691
0.07981462
-0.02605849
-0.09578087
-0.08491605
0.14670020
0.44736737
-0.48297831
0.19867171
-0.10072472
0.13735421
-0.10095324
-0.09975795
-1.64367151
-0.68144989
-0.07177696
-0.20078465
0.14526379
0.27374271
0.03509956
0.09361809
0.26528159
-3.71029305
0.05018159
-0.34266704
0.16733985
-0.37670541
0.24088502
0.12269692
0.16385777
0.15239328
-0.10832601
0.13299410
0.05729540
-1.13452506
-0.10210426
0.30395350
-0.02355759
-0.10810033
-0.70679235
0.14462854
0.22092153
0.31011119
-0.00038493
0.19902971
0.06375847
0.00876094
0.09202717
0.11403850
-0.28137958
-0.11807023
0.10454705
-0.72908616
0.05917425
0.01722756
0.04776675
-0.11822782
0.06433498
-0.09672000
0.15240994
0.00279589
0.09346314
0.08832904
-0.31588179
0.10522496
-0.22327510
-0.41090056
0.24034767
0.09639212
-0.05372556
0.10573970
0.09438984
-0.09277014
0.05428379
0.10016640
0.04195847
-0.00599099
-2.52729535
0.16070385
0.00694896
0.11901228
0.10801174
-0.23557329
0.03276903
-0.27742761
-0.37682736
-0.39692357
0.02376326
-1.06869233
-0.86637640
0.02875156
-0.04400086
0.07508040
-0.23157224
-0.03548511
-0.00489813
-0.30188429
0.10722522
-0.20670076
0.16516015
-0.16231783
0.15694433
-0.00205493
-0.01378968
-0.34698704
-0.12653553
-0.29177099
-0.09051093
-0.01806727
0.04535760
0.19570096
-0.92856330
0.12149025
-0.22936624
-0.91166300
-0.01982713
0.24614613
-0.44591418
-0.76097786
0.79637200
0.11733944
-0.14060739
0.45695120
0.00685808
0.11715437
-0.09860177
-0.68641227
-0.02725291
-0.27696303
0.13916679
0.63617903
-0.17561486
-0.17639054
0.32881585
-0.06317909
0.22086726
0.03143533
-0.52632689
-0.09464986
0.10260957
0.14642152
-0.37404075
0.03755843
0.58419883
0.14827253
-0.67385727
0.27617246
0.19863318
0.26253641
0.08601710
2.41680503
0.08999911
-0.22779930
0.30911061
-0.08408962
0.27484789
0.05485038
-0.34054312
0.14999431
0.21792693
-0.12802225
0.04907357
0.93454140
-0.28983977
0.31997138
-0.10552154
0.07809859
0.35960406
0.05756193
-0.21177198
0.10226272
0.13643290
0.17391285
0.03638152
0.21151596
-0.10512989
-0.03393068
-0.48543981
0.06310906
0.01221758
0.52247018
-0.12554576
-0.17235060
-0.22647850
-0.11324797
0.08542875
-0.47379616
-0.13144833
0.53356260
0.12223103
0.21951492
-0.01818515
0.19728827
0.19334537
0.58812422
-0.45446751
0.23576690
0.43025374
-0.25468358
-0.01768778
0.33241823
0.20968387
-0.15620191
0.10833532
0.29254872
3.08699608
-0.15164290
0.00080987
-0.17659916
0.16973808
0.06582863
-0.16510862
0.14593361
-0.07883791
-1.34987938
-0.39832780
-0.77091414
-0.47219354
-0.24880576
-0.06094834
0.12168470
-0.20447697
0.28528345
0.16515714
0.14357871
0.09585810
-1.09015191
0.10457385
-0.02599702
-0.72266614
0.08853325
-0.42789066
-0.26808444
-0.74268144
-0.00510161
-0.41482142
0.16108564
0.21731341
0.03970634
0.09157497
0.22288552
-0.27550772
0.09102175
-0.12523508
-0.00135919
-0.30921838
-0.14442778
0.24599238
0.30106151
0.00306555
-0.23090070
-0.08666107
-0.01841790
-0.38906798
-0.54750514
0.44016406
0.47071770
0.35384652
-0.28527883
0.17776428
-0.03264542
0.49938327
0.25787964
-0.05689536
-0.09213933
-0.29570919
0.25837931
0.20467408
0.21983583
-0.86131454
0.04737565
0.47629246
-0.20843956
-0.56438351
0.31758317
0.16518670
0.22788027
0.42810372
-0.22992319
-0.13382779
-0.60810328
0.37935141
0.21843061
0.45747474
-0.21616592
0.22451387
0.56910467
-0.50368458
-0.22917427
-0.10793700
-0.46450308
-0.43141419
0.57118940
-0.12528574
-0.17754625
-0.26472726
0.36070922
-0.07171721
0.71581382
-0.22332349
-0.13847584
0.38824260
-0.33695662
0.00352916
-0.41481742
-0.23792997
-0.31570125
0.09987024
-0.08073854
-0.16710608
-0.51171821
-0.21267964
0.45419881
-0.24574079
-0.29436740
0.03281682
0.39014715
-0.21984583
0.29398549
-0.26393464
0.05218751
-0.49276534
-0.11443849
-0.59252858
0.29478186
0.03955986
-0.23551367
0.32946590
0.02963183
0.18237588
-0.10845477
-0.40388063
-0.08547720
0.19698976
-0.23814495
-0.10827568
-0.07616084
0.27303961
-0.27512437
-0.32943296
0.14222474
-0.15911037
0.41031021
0.27575794
-0.16396709
0.46436259
0.43873516
0.47934502
0.17583217
-0.23638971
0.56653261
0.24428099
0.01545862
0.48944995
0.53726149
0.43441689
0.47067213
0.01690860
0.14938582
0.66870332
0.31911263
0.18382077
0.55028659
0.16196412
0.38112432
0.42488709
0.32215726
-0.23801227
0.46165630
0.00969115
-0.13708998
-0.02667685
0.57323515
0.41733328
-0.00205867
-0.03552153
0.56973028
0.16670518
0.07764786
-0.03069773
0.41326842
-0.01912371
0.21130913
0.26084313
0.31192824
0.26783693
0.30843580
0.07128628
-0.23673426
0.57891399
-0.29875460
0.42594433
0.08030376
0.14732046
0.31598118
0.34347874
0.34148422
0.33649454
0.04440012
0.29671970
0.08059514
0.07111128
0.79701960
0.18290876
-0.01664751
0.33252424
1.46859121
0.13633777
-0.39748976
0.28140369
0.11696880
0.30993357
0.17989250
-0.19230698
0.15567401
0.14453255
-0.24708325
-0.53888714
0.71039879
-0.09374613
0.24437986
0.01717782
-0.03199388
0.30213481
0.36149356
0.20414512
0.32634246
0.15988182
0.37270936
0.22178406
-0.21828869
0.05662577
-0.23965806
-0.01192132
-0.03730180
-0.21497479
0.04302144
-0.08326048
-0.35825959
-0.32778111
0.04977899
0.22677173
0.06156144
-0.19710100
-0.03788693
-0.03391705
0.34574419
0.02181044
-0.58354729
-0.14721216
0.08172303
-0.10246546
0.16799624
-0.44369093
0.17552406
0.31543979
-0.07695029
0.25444084
-0.54914820
-0.42761785
-0.53008807
1.83511412
-0.22682019
-0.44142130
-0.55708081
0.23425676
-0.09971428
-0.24692790
0.16771759
0.08873229
0.40619650
-0.14536810
0.33264455
0.31986898
-0.22239003
0.54197145
0.33160922
0.12198386
-0.04899637
0.65650940
0.23013113
0.00969303
-0.29741135
0.05135475
0.71922392
-0.12314085
-0.05869108
-0.04443599
0.21317270
-0.25949216
0.52406806
0.14672273
0.48826087
0.28617674
0.13561340
0.32735986
0.34900045
-0.32330319
0.45112640
0.42495003
-0.06968526
-0.18762666
0.23157969
0.18742602
-0.19336677
0.52800119
0.14103690
-0.03237137
-0.01497497
0.07782453
0.10596305
0.24785633
0.12501073
0.44044068
-0.36186430
0.17374894
0.38638586
0.21924077
0.14546058
-0.65464741
-0.45337278
0.39009798
0.34533590
0.32444018
0.04356511
0.38998464
-0.22472738
0.17427829
0.01760842
-0.06132205
0.11916376
0.43891740
-0.19564401
0.07681568
0.15468960
0.06588865
-0.37077683
0.13017190
0.47036743
-0.23548773
0.24653956
0.01086652
-0.07702085
-0.17950411
-0.63483119
0.01520380
-0.19187188
-0.10218643
0.01161274
-0.41073337
-0.37143481
-0.07922268
-0.08156390
-0.45934147
-0.13626423
0.06926522
0.20261507
-0.16732939
-0.04930787
-0.39921010
-0.10753568
-0.23195954
0.03506013
-0.70798570
-0.22827260
0.22107549
-0.09442171
-0.14578176
-0.03200074
0.17863198
-0.10156298
0.64203233
-0.15196398
-0.10612550
0.16212690
-0.81345272
-0.38739759
-0.02089364
0.23275405
-0.16097750
-0.73751473
-0.57838881
-0.27143905
-0.64928651
-0.04139031
0.06864211
0.20242818
0.09262653
-0.07386745
-0.16918217
-0.20218442
-0.33721164
-0.09932034
-0.01905542
0.09753064
0.23182966
0.09291773
-0.67392606
-0.73814666
0.00011238
-0.08744086
0.24074700
-0.25171986
0.36715823
0.19579679
-0.20721173
0.29438192
0.29780579
-0.74003750
-0.44270962
0.14016438
-0.02379561
0.54508388
0.08661778
-0.54000354
-0.08001764
0.35888609
0.13143703
0.64342850
0.13418163
0.36763388
0.32045415
-0.67055887
-0.19091690
-0.61544997
0.20628977
-0.13001335
-0.30599794
-0.12621179
-0.00137356
-0.07849510
-0.24744821
0.25515521
0.27495092
0.15308094
-0.38141012
-0.07686260
-0.43928698
0.23410214
-0.06613288
0.07325745
-0.29904893
-0.09796736
0.18892635
0.09507202
-0.22447608
-0.08525304
0.26306111
-0.07040392
0.20766583
-0.13170347
-0.63569933
-0.46830836
-0.23469901
-0.46236017
-0.40143350
-0.34836647
0.26940107
0.06328890
-0.42923447
-0.20021495
-0.05292237
0.18820612
0.10056952
-0.41074863
0.34276196
-0.33107060
0.58954030
-0.20483682
0.56961977
0.38916618
0.28345859
-0.20403589
0.12666033
-0.16550031
-0.39302564
0.39087749
-0.23976403
-0.44406772
-0.20168234
-0.07670318
-0.16452141
0.39294314
-0.00980864
-0.14674488
0.15083784
-0.12851782
-0.17111596
-1.07643390
0.12645499
0.23032716
-0.10160127
-0.26920119
0.11092200
-0.00891240
-0.34790599
-0.21473129
-0.03169904
-0.33914900
-0.18801951
0.22133565
0.19025254
0.10579263
-0.79119331
-0.14728810
-0.61256760
-0.10836942
-0.18954654
0.85555315
0.28028232
-0.22533683
-0.01858513
0.09804230
-0.11658583
-0.24487372
-1.02039230
0.22643626
0.10066281
-0.52298391
-0.13449593
-0.01582137
0.23471451
0.09283789
0.10718428
0.43613070
0.01279187
0.72300059
0.13859856
0.18841106
-0.04667118
0.70578635
0.44287363
-0.41198230
0.52227843
0.09170285
-0.05181092
-0.17660917
0.28978407
0.86958563
-0.34117720
0.20307352
0.19281004
0.65703619
0.59390575
0.08219870
0.48025382
0.04565352
0.05113913
-0.30217564
0.10084717
0.19947438
-0.25432488
-0.01158338
0.66140580
-0.65311903
-0.06056494
0.77793360
0.37067196
-0.31912413
-0.06845471
0.19909759
-0.09703349
0.30127841
0.35568291
0.30818209
0.17183080
0.05339907
-0.51035446
0.03783241
-0.39837110
0.61996800
-0.44759697
0.11590334
0.12374391
0.30187538
0.59447926
0.48176864
-0.25043201
0.49731705
0.20827782
0.11327738
0.13030091
-0.10739071
0.10479441
0.11935291
-0.09071858
0.44574770
0.39658046
0.35872212
0.04222597
2.31084514
0.10226198
-0.02100687
-0.03915758
0.40686578
0.12005091
0.00544787
0.33866543
-0.23133837
0.02306580
-0.00833685
0.00918887
1.28484893
0.06423043
0.00414536
-0.03463964
-0.01155210
0.69612175
-0.25538719
-0.50574720
0.13250440
0.01817653
0.13039804
0.17876178
0.11025316
0.07626300
0.15991545
0.62345529
-0.00375902
-0.09194205
0.25658953
-0.07833013
0.00026490
0.02467399
-0.20749815
0.03006389
-0.00647360
-0.05434740
0.07996599
-0.16568153
0.13519140
-0.07284929
-0.17290215
0.01662771
0.34490144
-0.08528779
0.10697410
-0.03053769
-0.21299064
0.03686375
0.00888614
-0.20934559
-0.23562306
0.24808076
0.17969584
2.47662425
0.37561250
0.24381973
0.03827489
0.03481846
-0.19154587
-0.04355056
-0.06430493
-0.26634398
1.89220798
0.45424092
0.04056226
0.02639914
-0.05148639
0.32502267
0.34499353
-0.02594455
0.26540205
0.49705592
0.09239108
0.12377568
0.96049339
0.20079486
0.15561464
0.14855710
-0.01007732
0.45739570
0.00501692
0.28694633
0.41381437
0.18318443
0.43049312
0.36623862
0.46137244
0.06752753
0.26128829
-0.19123535
-0.11219855
-0.05082016
0.10458533
0.83983970
-0.03823281
0.28768861
1.10913157
0.37888631
0.24087189
0.08095208
0.17027627
0.06931949
0.24725719
-0.11261426
0.44230339
0.29745463
0.15822633
-0.07225297
0.01000636
0.30211735
0.10258421
0.15163361
-0.07217926
-0.01043783
0.00585423
0.44157678
0.37283152
2.26476383
0.01367405
0.54930270
0.37869152
0.31597003
0.21141918
-0.03524015
-0.46836680
0.00666297
-0.02119315
-0.64832085
-0.61575437
0.05733505
-0.24441099
0.50822878
-0.46631986
0.03736941
-0.04845348
-0.10149426
0.03259758
-0.18548030
-0.53624451
-0.66632766
0.18990643
-0.48289078
0.01128880
-0.08867235
0.06775557
-0.29115713
0.13731174
-0.69406003
-0.36517334
0.14346910
0.14096461
-0.37322155
0.06513764
0.10632899
0.09085779
0.26300004
-0.22837441
-0.48900065
0.27950236
0.10837382
0.14093348
-0.28863928
-0.40024698
-0.15226874
-0.08788400
-0.17047760
0.04915812
-0.33216363
0.24599373
-0.12694004
-0.41093683
-0.51882499
0.16521326
0.03598734
-0.24277282
-0.04149719
-0.17817178
-0.00264289
0.08839980
0.20775183
0.04948471
0.09240756
0.23847944
-0.19537123
0.20672716
-0.07248732
-0.45155191
0.21812227
-0.41855362
-0.51208556
0.53781360
0.27195606
0.19692010
0.13902611
0.06501816
0.01907548
-0.05846770
0.06481418
-0.00837189
0.18680340
0.23578933
0.19460984
-0.11826389
0.11232153
0.26978838
0.49294248
0.02568026
-0.00008569
0.18108587
0.41297054
0.30301315
0.15602559
-0.03497880
0.08774212
0.12221336
-0.25198865
0.17949305
0.64995551
-0.15368710
-0.40615758
0.35320857
0.23099360
-0.06027055
0.09690939
0.11495091
-0.00255015
0.28650546
-1.02798975
-0.07524554
-0.35561666
0.46318132
-0.35609880
-0.14702967
-0.23841390
0.80376023
-0.10983811
0.42670140
-0.11291224
0.14244498
-0.18281583
-0.22605409
-0.28361213
-0.19955751
0.13922410
0.36826250
-0.19321379
-0.10520328
0.45087534
-0.01714198
0.26781297
0.66975856
-0.17944416
0.72503370
0.27815762
0.07595559
-0.15810512
-0.07125199
-0.94288379
-0.61177844
0.04384046
0.12448236
-0.37595129
0.12860617
0.04113819
0.02081291
0.05714471
-0.53550512
-0.47073412
0.25100961
0.04890285
-0.15201402
-0.15503316
-0.41046670
-0.68762696
0.03379942
-0.26211980
0.12122602
0.18219084
0.03123501
-0.22195654
0.27106395
-0.38084388
-0.10603271
0.07958808
-0.22321559
-0.26486996
0.01611575
0.67133009
-0.15367812
0.05239252
0.30432925
0.01047121
0.23441958
-0.43941769
-0.52144623
-0.67802030
0.20793341
-0.16536665
0.00654913
-0.30796587
0.11308605
0.13230550
-0.44128072
0.00635973
-0.03231242
-0.38259321
-0.27413553
0.18782839
0.29441187
-0.28449741
-0.07874347
0.41612276
0.20924495
-0.77083677
-0.63129061
0.03380272
-0.36418530
-0.56598586
1.84077144
-0.12393047
-0.45425141
0.05586314
0.38563344
0.23129089
-0.43473539
-1.00166678
0.22143576
-0.16125999
-0.05320840
-0.05492798
2.14110565
-0.32047972
0.46471441
-0.06414076
-0.09138882
0.55589116
0.15053120
0.32821032
0.09751888
-0.11481491
-0.43935421
0.24968107
-0.15100552
0.05818604
-0.12512991
-0.05818276
-0.10946472
0.03242937
0.07458457
-0.09869274
-0.22058642
-0.06202597
-0.15345946
-0.36238596
0.09516492
0.05939481
0.04905492
0.12277524
0.00280838
-0.17439400
-0.32874975
-0.17484015
0.00964164
-0.16491121
0.07776335
-0.14896575
-0.04314390
0.88229454
-0.09375487
-0.02347445
-0.16881751
-0.09489769
-0.07672242
2.84144521
-0.57719314
-0.03344784
-0.15634930
-0.07130445
-0.08637019
-0.06849014
-0.36624166
-0.26772133
-1.53417313
0.23918626
0.37067816
0.23054369
0.17988914
0.14690512
0.28564674
-0.33404744
-0.44835424
0.15234493
0.36342871
0.31106779
-0.76101452
0.09221534
0.23144995
0.02936494
0.03539409
-0.44158536
0.16396245
-0.50294578
-0.11559630
0.30734023
0.09846081
-0.35613731
0.13051438
-0.08713737
0.13037619
-0.61171097
0.24103522
-0.14406775
-0.40646490
0.47277021
0.41595188
-0.18693972
0.34703463
0.28009725
-0.17105030
0.29719478
-0.34199390
0.02680334
0.12649968
0.29442990
-0.16584948
0.25402960
-0.48424575
0.21501218
-0.10498898
-0.03963470
0.13857329
-0.66874969
-0.27473143
0.20516311
0.28328094
0.09241957
0.08758486
-0.59980106
0.33338380
0.05537525
0.22624812
0.14238830
-0.21060805
0.49184981
-0.08206443
0.38196751
-0.60791856
0.06480852
0.35943121
0.13301763
0.06024357
-0.06491722
-0.08182257
0.00208787
-0.95643514
0.06614470
-0.32248303
-0.26913801
-0.63632798
0.12327706
-0.00564473
-0.04080961
-0.15498212
-0.46336043
0.00758266
-0.61785370
-0.07714552
0.12487846
0.04306261
-0.77820474
-0.06112999
-0.34200263
-0.30669084
-0.10146236
0.34366095
-1.17755556
-0.53718573
0.02033963
0.07025585
-0.66207564
-0.12950483
0.07849944
-0.21620922
-0.02276267
-0.55199462
-0.11634617
0.01427765
0.40234205
-0.44787452
-0.07143752
-0.09141353
0.18893409
0.06683236
-0.80426311
-0.21256450
-0.63323796
-0.47969580
0.46790656
-0.82352805
-0.23455302
-0.39327905
-1.08509231
-0.17554043
-0.58966815
-0.24794334
0.22298795
-0.65541583
-0.16017413
-0.34310919
0.26413077
-0.09311463
-0.24808003
0.18416521
0.11047290
0.60620755
0.01783068
-0.10061764
0.22201143
-0.35091409
-0.00993123
0.05478749
-0.54768378
0.00244221
0.14357671
0.06325220
0.12890515
0.23378706
0.27932212
-0.11682373
0.05113912
0.16897230
-0.40929487
-0.02802746
0.18670894
-0.00935014
-0.21516211
-0.21888193
0.31817544
-0.32710981
-0.24971160
0.49577510
-0.13841249
-0.62698710
-0.83306223
0.52450180
-0.18306427
-0.16964315
-1.24190962
0.48574173
0.01923939
0.03423912
-0.65699422
0.40452281
-0.11888482
0.18099432
0.00358291
0.04375872
-0.13984130
-0.06816535
-0.09586078
0.25185639
-0.15165903
-0.68091136
-0.00323615
-0.47591653
-0.18561798
0.13024773
-0.32731465
-0.25351232
0.12708195
-0.17629789
-0.75690818
0.31176180
-0.12580872
2.93205237
-0.23329239
-0.31774402
-0.25363693
0.28362229
-0.28322175
-0.14304236
0.07954484
-0.28146365
-0.29904884
-0.07069898
0.14468451
1.26498592
-0.17956957
-0.26100433
-0.25480479
-0.07723744
0.12914757
-0.09326372
-0.28748253
-0.23806380
-0.30355582
-0.17843771
-0.35469082
0.09618831
-0.22217567
0.01491901
0.50268257
0.06004303
-0.07218482
0.25062218
-0.15990241
0.31484380
0.11290795
0.00127787
-0.20157683
-0.23697451
-0.00494723
-0.18737698
-0.23256177
-0.25070599
-0.52318966
0.33052978
-0.16981609
0.14378560
-0.35932744
-0.32786694
0.06609623
-0.04477139
0.12742566
-0.06276406
-0.20138998
-0.00775469
0.06978385
0.17137018
1.82210469
-0.01003972
0.06930187
0.61682022
-0.17144215
-0.16795902
-0.03912489
0.00880870
-0.28709355
0.55559814
0.31675979
-0.01578323
0.24274926
0.03312488
0.09009221
0.21413709
0.09047478
-0.04318679
-0.29429191
-0.06160474
0.19212331
-0.27868870
0.19226676
0.15454774
0.29557467
-0.49376839
0.25457722
0.22431822
0.17645359
0.10137931
0.34352955
0.20476966
-0.20449641
0.07060044
-0.83329517
0.20040298
0.16752037
-0.13492231
-0.55067271
0.30789247
0.45361471
0.00563750
0.45865422
0.86810416
0.05831303
0.45750305
-0.39146236
-0.43526644
-0.62666613
0.30710080
0.11143519
0.05545773
0.17901525
0.35252142
0.11666854
-0.08659604
-0.18498647
-0.09450838
0.09292357
-0.27013004
0.00956289
-0.22956358
0.40726969
0.32395810
0.47198528
0.26794088
0.14765994
0.47181690
0.23853111
-0.18508685
-0.10539277
-0.03842835
-0.01244457
-0.08620784
0.29420516
0.12882240
-0.74155122
0.46846604
-0.15995780
-0.09336697
0.43870351
-0.73233700
0.12053507
0.05642075
0.11521155
-0.56079870
-0.02824810
-0.44327164
0.17013296
0.09080610
-0.32805505
-0.47815469
-0.16418207
-0.42605612
0.25684774
-0.16247687
-0.76623493
0.09633982
0.05741095
0.16796134
0.32023701
0.41720447
0.00083554
-0.36871082
0.02049210
0.22112399
0.44353771
-0.30622664
-0.11773890
0.16194016
0.00839382
-0.83911002
-0.34681946
-0.66332424
-0.01232071
0.13176477
0.11670271
-0.40230250
0.04747412
0.21094036
0.08246356
-0.06467553
-0.49802190
-0.46706626
-0.56947559
0.17339194
0.13703142
0.04015715
-1.32030451
0.29797116
0.32493773
0.44177982
-0.30235842
-0.50182134
0.29933813
-0.33260313
0.17804182
-0.26490366
-0.07831237
-0.20645808
-0.04204097
0.39491639
0.31715021
-0.45054796
-0.55205470
0.15997551
-0.75567359
-0.79231852
-0.03389976
0.53169209
-0.03684662
-0.06745171
-0.21734177
0.04840688
0.20113938
-0.08095844
0.07921494
-0.61618459
-0.17911209
-0.85900605
0.05786027
-0.28957891
-0.66349202
-0.12045645
0.26505679
-0.45369044
-0.69461936
0.42167217
-0.00511153
-0.34531304
0.04318053
-0.08584568
-0.97855633
-0.15172800
0.08685695
0.24806124
0.20005085
0.03504255
-0.00484031
0.26093414
0.10160785
0.15106916
0.00591350
-0.05045473
-0.17469123
-0.58764249
0.13318188
0.56856287
-0.13370362
-0.07883892
-0.16719601
0.04659614
0.16559352
0.30192798
0.10501688
0.12361984
-0.14664371
-0.01018156
-0.71613294
-0.33024600
-0.30572847
0.18797795
0.14643143
-0.05017107
-0.64322519
-0.23088801
-0.34959024
0.32555401
0.23240840
-0.25403330
-0.08122658
-0.12790161
-0.01789741
-0.24187982
0.30312151
-0.06198907
0.22973847
-0.46782231
-0.18360433
-0.45835653
-0.12999007
-0.34917167
0.26616660
0.03325570
-0.48956099
0.09165151
-0.61673558
0.16219628
0.01084302
-0.14331430
-0.04200922
-0.05492696
-0.00082454
0.12443538
0.49341318
0.23453332
0.20437792
0.39560962
-0.51263237
-0.46928677
-0.41508344
-0.70948797
-0.05078865
0.65176767
0.06938285
0.15109874
0.10878694
-0.40897068
0.34535256
-0.07909506
-0.19128287
-0.11676347
-0.61663884
0.00769468
0.16345495
0.44013900
-0.15134868
0.16104233
0.39675108
0.62070310
-0.62017769
0.08694470
-0.01884259
-0.08174734
-0.10361253
2.60402417
0.16937579
-0.13705607
0.11913738
0.20762959
0.26695198
-0.04992206
-0.16879332
0.20938118
0.21850847
-0.46825600
-0.16474769
2.03740811
-0.19628245
0.38832098
0.00995582
-0.04938648
0.80145985
-0.03715826
-0.03448455
0.05933502
0.13114649
0.13825721
0.18466800
0.07856180
-0.05411844
-0.15890504
-0.17111026
-0.08467924
-0.02007725
0.63442916
-0.03765638
-0.24690942
-0.27755010
0.30603486
0.29634389
-0.01878336
-0.26508498
0.20344040
-0.18614857
0.02412895
-0.07249513
0.03291230
-0.04711255
0.49213955
-0.24994859
0.13723864
-0.03696337
-0.13121049
0.54324561
0.41249910
-0.03020765
-0.26067796
-0.18439938
-0.26928648
3.45278883
-0.34163210
-0.19491427
-0.20922644
0.19799209
0.25061911
-0.02628069
0.24906211
-0.00186090
0.33371827
0.25464955
0.10918613
0.10113540
0.13204432
0.00135352
0.17082833
-0.31730586
-0.06891685
0.05336754
-0.10057641
-0.61551869
-0.13777928
0.47536331
0.01211362
-0.04626105
-0.20194593
0.33408818
0.24658443
0.04697510
0.47046086
0.37616569
0.16712594
0.14460512
-0.26258981
-0.04638468
-0.63447833
-0.18858798
0.23917606
0.10748739
-0.03226750
0.14671500
-0.09045135
-0.06034824
0.05269178
-0.02501481
0.49284902
-0.87157428
0.12104902
-0.00957624
0.33927089
0.11213227
-0.12947698
0.13315625
-0.00350041
0.05239164
0.05950500
-0.09865434
-0.17035577
-0.18423276
-0.26276031
0.17240249
-0.54809624
-0.68112546
-0.29855123
0.06734107
-0.10850096
-0.02975231
-0.14972514
0.28512171
-0.02339583
-1.10465360
-0.18981387
0.09992425
-0.78431618
-0.19982047
-0.66713852
0.06217683
-0.29239205
0.08410246
-0.32211882
0.10010985
0.27395520
-0.25769544
-0.40470266
-0.01012743
-0.92994058
-0.20731296
0.02540289
0.29036409
-0.33319509
-0.39109465
0.13851377
-0.14969085
0.04422817
-0.11976707
-0.27292973
0.33212242
-0.26141798
0.08021343
-0.07181769
-0.10543333
-0.17346884
0.51276302
-0.81893486
0.26074272
-0.12122923
-0.10603329
0.47164637
-0.12075724
0.22052866
-0.17780688
0.36902612
-0.20736344
0.00456100
-0.03692204
0.15074384
-0.34007144
-0.63404357
-0.50238228
-0.19083168
-0.02126766
0.06270409
-0.27676818
0.08973932
-0.08630501
-0.10318580
-0.13092928
-0.17236046
-0.56365347
-0.41316256
-0.11392554
-0.11374791
0.11041938
-0.84565777
-0.15335287
-0.59888232
-0.43536949
0.10613678
-0.00389580
-0.12511595
0.41596285
0.07387950
0.22338066
0.39478830
-0.43147880
0.30501735
0.53644311
-0.00210997
0.21860690
0.10892494
0.06725739
0.57021743
-0.39224413
0.19770105
0.00470499
0.23291600
-0.19555825
0.41863704
-0.20842490
0.44896883
0.18275385
0.26405278
-0.68679905
0.54494810
0.03346419
-0.17509174
-0.37880355
0.58838385
-0.17860292
-0.51800597
-0.17108278
0.49067628
0.46315858
-0.37655127
-0.22413363
0.47540045
0.19102101
0.22759341
0.03955114
0.30167469
0.27669004
0.71698725
-0.05123743
0.01545353
0.35503858
-0.25025854
-0.18364276
0.28596655
-0.08645421
-0.04509660
0.38749155
0.44079816
0.44013199
-0.33590865
0.37466255
0.13171259
0.24704655
0.12064267
0.04407442
0.42549875
0.11353220
0.76603675
-0.45985198
-0.40614569
0.29677284
0.03355141
0.18507673
0.12109649
-0.00486087
-0.00274280
-0.52676946
-0.27465501
-0.33267349
0.46807888
0.04992806
0.02081458
-0.64745867
0.04468202
-0.46526757
0.29809242
-0.48089367
0.03888877
-0.63249767
0.09165373
0.16772982
0.02469817
-0.11191481
0.00808378
-0.38869804
-0.34568521
0.25327003
-0.46983224
-0.32592118
-0.29212534
-0.31696832
0.30603063
-0.07347602
-0.85807079
0.27821004
0.01379789
0.49286729
0.26012018
-0.64063257
0.45358852
-0.35344625
-0.08485179
0.05550474
-0.14331940
-0.49085394
-0.00611112
-0.83885992
-0.10131481
0.09709012
-0.10440115
-0.00766028
-0.36433026
0.46086854
0.12425423
-0.49824286
0.21026002
0.35671359
-0.65754557
-0.08529269
-0.37665403
-0.87456429
# layer2.bias shape=torch.Size([32])
0.00660730
0.09089898
-0.01703479
0.11551365
0.13455892
-0.05840388
0.02280049
0.14491552
-0.03833392
0.02824209
0.03910292
0.10282642
-0.09915248
-0.04260300
-0.02576709
0.04556205
-0.00388976
-0.01835991
0.07931797
0.11806741
0.02897605
-0.11289258
0.01728782
0.09075011
-0.12223911
-0.11862543
0.03876638
-0.01348475
0.01360415
-0.08165506
0.08441646
-0.13570847
# bn2.weight shape=torch.Size([32])
0.51539969
0.71967965
0.87804383
0.98717266
0.99355304
1.00304854
0.78956246
0.94708669
0.75943673
0.62167275
1.26688671
0.88090378
0.51036251
1.37128067
0.92653197
1.03875601
0.84314317
1.06712246
1.01224697
0.62496263
0.67724204
0.57370126
1.02929139
1.16200721
0.86762661
0.84620565
1.11671603
1.01907837
0.98799443
0.89584190
0.88395476
0.95756829
# bn2.bias shape=torch.Size([32])
-0.09654457
0.15236384
-0.22277391
-0.82070631
-0.33266109
-0.28146461
-0.45859623
-0.85265660
-0.62975425
-0.21641596
-0.49314743
-0.30446261
0.13365950
-0.13621475
-0.90618879
-0.43673557
-0.42758730
-0.38472605
-0.26602381
-0.06558488
-0.23749612
0.36827824
-1.00072575
-0.45266828
-0.37025058
-0.22486556
-0.66272831
-0.79385048
-0.09689473
-0.33364588
-0.46761134
-0.31488758
# layer3.weight shape=torch.Size([16, 32])
-0.20779935
0.19268878
-0.39822894
-0.74941832
-0.26353213
-0.52368271
-0.22005507
0.01281224
0.04523336
-0.11021266
-0.03419954
-0.54303128
0.24696581
0.22943477
-0.34126756
-0.07202672
-0.70571172
0.07550425
0.14409865
-0.61102831
0.04839880
-0.46776390
0.39906701
-0.28499693
-0.14600427
-0.52218676
-0.29781237
-0.20226344
0.30948725
-0.01886419
0.38426304
0.10050141
-0.52432507
0.13565049
0.42400095
-0.42596170
0.00363955
-0.54870266
-0.09864338
-0.10645476
0.41550484
0.08890308
-0.75200903
-0.37564066
0.01010110
0.01806378
-0.31320629
0.24948654
-0.06615906
0.58064425
-0.12813570
0.00797400
-0.28119969
-0.28058499
0.29865593
0.02986533
-0.41052064
0.02167370
0.15053344
-0.21285678
-0.70619160
-0.04880810
0.71464801
0.43867606
0.27726123
-0.01019806
-0.46280637
-0.26821366
-0.15631412
0.09079724
0.22381520
-0.89112610
-0.54764521
-0.08456394
0.29557291
0.01018737
0.19757634
-0.15875012
-0.41566259
0.37826020
0.35362318
-0.67687035
-0.49771541
-0.61644119
0.27038592
0.10129082
-0.38397408
-0.09441774
-0.09091156
-0.07375124
-0.85699284
0.16017154
-0.00365114
-0.03617959
-0.16401425
0.13188799
-0.12668911
-0.51136875
-0.07119114
-0.17807028
-0.59253991
0.24402466
-0.44055021
-0.20963681
-0.02754970
0.14588195
-0.12136777
0.19387901
0.05356640
0.45124406
-0.28788957
0.27760613
0.19617544
-0.36839244
-0.10231649
-0.32381693
-0.31316888
0.23962167
0.18846270
-0.78599149
-0.12192196
0.15221836
-0.27738318
-0.19984187
-0.18750142
-0.06027316
-0.13706894
0.46963921
-0.40237531
-1.17769229
-0.00871724
0.25179139
-0.06240273
0.22517572
0.35424429
0.09347903
-0.37837276
-0.20390587
-0.14858371
-0.06853615
-0.23789689
0.03341056
1.01810682
-0.20279263
-0.11480091
-0.10062350
0.30525485
0.08789776
-0.31290722
-0.04145736
-0.03344524
0.07840327
-0.14872931
0.07987424
-0.42718998
-0.86698264
-0.19679143
-0.17717963
-0.09039669
0.06888244
0.16591163
-0.73224300
-0.18396373
0.01325780
0.12678643
0.26292130
-0.35938522
0.30243284
-1.03350997
0.22329156
0.27860758
0.16968632
-0.18907648
0.43826097
0.08269980
0.28096518
-0.07930485
0.04056260
0.27585831
-0.20951459
0.11012904
0.21440296
-0.22796901
-0.16538809
-0.04944527
0.11805072
0.06121461
-0.05841897
-0.31000465
0.30533865
0.19861987
0.60801554
0.29142383
-0.09927360
0.02384387
-0.47176930
-0.27604550
-0.08144165
-0.46678337
0.10335597
0.27202314
0.41780320
0.46254277
0.16849989
-0.18185973
-0.52960187
-0.48318791
-0.06523383
-0.70031428
0.01595981
-0.47856480
0.26263189
0.31281224
-0.26376399
0.11520325
-0.47502583
0.06432530
0.11674768
-0.24368650
0.02758795
0.28364104
-0.65274256
-0.57957232
-0.15315166
0.23671339
-0.14187360
-0.32232246
0.42971411
-0.21542563
-0.51247895
-0.57866538
-0.74623078
-1.13573730
-0.40919554
-0.52330458
-0.43114215
-0.07039610
0.00586509
-0.13010783
-0.19092350
0.12989455
0.09496096
-0.49056002
0.20062733
0.15652606
-0.04301629
0.14472342
-0.30935201
0.31262660
0.10903491
0.24890512
-0.06553217
-0.11810878
-0.20359585
-0.01132990
-0.16848664
-0.13298152
0.18604605
-0.46652627
-0.10361081
0.24037254
0.44870025
0.07273491
0.00053634
-0.43781331
-0.06859989
-0.33100948
0.17428850
-0.17256588
0.24113359
0.16623761
0.58574456
0.18283707
-0.08392836
0.16005899
-0.07491043
0.33730590
0.41192284
0.23240741
0.02266782
-0.77089280
-0.03841118
-1.08058357
-0.13162689
-0.13521764
0.08306157
-0.46141246
0.43146011
-0.06664494
-0.18265522
-0.26139691
-0.88644427
-0.14008196
0.19890021
-0.17993043
-0.05133449
0.00258038
-0.31559509
0.19143538
0.11225649
-0.49845669
0.58683681
-0.62493366
0.09805927
0.17261665
0.20846812
-0.41682303
-0.12173343
-0.14157380
-0.04304705
-0.31344992
0.38405526
-0.17633428
-0.06528905
-0.40056360
-0.78368855
0.17286818
0.34654203
0.26726702
-0.02021809
-0.07805479
0.26507810
-0.46673504
0.70772153
-0.39103708
-0.13870057
-0.23950249
0.08778709
-0.24183767
-0.14283937
-0.43750954
0.21939996
0.19674771
-0.30334261
0.16696498
-0.17763592
0.13198166
-0.35610896
-0.06240961
0.19627018
-0.06928317
0.34695795
-0.47204250
0.25024393
0.27865669
-0.52517271
0.13501093
0.79546118
0.32245871
-0.09497077
-0.51973182
-0.24269783
-0.21588874
0.00207615
0.30709156
0.17903806
0.02333087
-0.12038862
-0.16446915
-0.67017579
0.03872163
-0.20401827
-0.94650477
-0.21966392
0.08060127
-0.34591669
-0.30912057
0.71800095
-0.12208331
0.12028791
0.24689011
-0.05683030
-0.15697227
-0.06963998
-0.03414756
0.18328573
-0.22605416
0.52940542
0.05760931
-0.34767249
-0.55141193
-0.22586851
0.17281173
-0.30035257
-0.05570621
0.28703514
0.08463291
0.30575311
-0.07952867
-0.22217749
-0.10363577
-0.60619396
0.12148828
-0.07701831
-0.96097302
-0.21227804
-0.07525695
0.12563625
0.06940868
0.17807607
0.30460995
0.30716354
0.20448916
-0.44546676
-0.12078045
-0.03226442
1.14712906
0.46249372
-0.06424080
0.18405141
-0.16985866
0.06761565
-0.04502470
0.43117377
0.03675532
0.11949882
-0.16430332
-0.65985793
0.11613946
0.66282797
-0.32358328
-0.06984098
0.33422738
0.23372188
-0.40882069
0.02161016
-0.14297120
0.10745561
0.11689931
-0.11521792
1.09267700
0.04658587
-0.07098804
0.14770330
0.90904695
-0.06402630
0.02569930
-0.00250844
-0.16974433
-0.12490451
-0.42847672
0.11430580
-0.21997164
-0.48182836
0.04614998
-0.10747374
-0.10886649
0.13801101
-0.04299895
0.01858975
0.07313004
-0.08137476
0.28661877
-0.33491656
-0.26698291
-0.06994865
-0.04050484
-0.00906078
-0.72571540
-0.60931253
-0.30911461
-0.25960678
0.19891833
-0.13646063
-0.52446467
-0.11213425
-0.03367798
0.01451918
0.27097589
-0.35098374
-1.25673127
-0.16453183
0.51736176
0.10913240
0.26702017
-0.18614712
-0.10522401
-0.04818757
-0.01828447
-0.76683682
0.05828088
0.08144932
0.14258415
-0.29722849
0.36768746
-0.03412298
-0.08059853
0.57799721
-0.03724997
0.28367731
0.57790273
-0.25871065
-0.28473431
0.21458107
-0.22726828
0.19906721
-0.34804454
0.53913540
-0.37598729
-0.22885290
0.07125778
-0.51026195
-0.50769919
-0.42550945
0.27930605
-0.38163009
0.32065290
0.11415575
-0.48825118
-0.87001455
0.50998712
-0.14702685
# layer3.bias shape=torch.Size([16])
-0.13977499
0.06058232
0.02637374
-0.15856798
-0.03986150
0.13550963
0.12551883
0.04202283
0.03701825
-0.21073233
0.05472519
-0.09288562
-0.10559565
0.06412813
0.08524148
0.12926441
# bn3.weight shape=torch.Size([16])
0.56752163
0.94362271
0.69461244
0.96968263
0.99983746
0.70476502
0.65299350
0.78226793
0.87857562
1.03149152
0.96333838
0.84822309
0.33390954
0.95123011
0.84948188
0.85874712
# bn3.bias shape=torch.Size([16])
-0.30623287
-0.05968102
-0.17539072
0.35906398
0.07552306
-0.55832767
-0.44911307
-0.31042823
-0.58019930
-0.09290153
0.06431256
-0.00093326
-0.94556665
-0.10938366
-0.12428769
-0.03866819
# layer4.weight shape=torch.Size([3, 16])
-0.06314088
0.26972899
0.01683130
0.12986001
0.16176046
-0.46962327
-0.26436627
-0.30638441
0.17854132
0.14472696
0.11304652
0.03309791
-0.53335714
0.32639644
-0.21297541
0.05912658
-0.25139087
-0.25475276
0.32031700
-0.10498283
-0.31274247
-0.24263589
0.17249084
0.26705384
0.18815246
0.20194824
0.20190209
-0.32625660
-0.06273563
-0.06916679
-0.32860705
-0.41055846
-0.01073972
-0.03126822
-0.21818894
-0.38788897
0.16086891
0.67007238
-0.09674855
0.09107592
-0.24656847
-0.44283190
-0.41196892
0.20135812
0.29085353
-0.03179072
0.28669626
0.04555441
# layer4.bias shape=torch.Size([3])
0.25293881
0.01001456
-0.07127640
